0.5846343736059766
-0.5306480592751067
1.2444780142700524
0.9549521504113134
-0.2580217311301277
-0.8190665150447298
-2.0335942353001437
-0.941293771806505
-1.2718491449921407
-1.4440182642646346
0.22576303288325883
0.5078015708014589
2.2614931724605816
-0.7764285590746033
1.938059971669821
-0.23836169070856744
-0.9225871269384301
1.364348244098469
-1.2292617756503863
1.5044756166550166
0.6041091791467141
-0.7883088597300427
-0.7039119336728397
-0.8529418458766828
-1.2113512944107367
0.46125486769352786
0.8066329524884557
1.0325881415632883
-2.051500855980711
3.9021479338995864
1.9189667154078285
-0.9874933523532357
-1.361142534093922
-0.5345832878704515
-1.761368770878367
-1.6545313632866228
-2.258111385569637
-4.468078988178602
-1.4928300629421394
1.3503903321207127
0.9717680731446341
-2.3333455795037197
-2.568487143824079
-3.12843495511392
-0.21484489607727042
-1.60202427413172
-2.278165569966372
0.48752334537371506
-0.23318059565802182
0.7825955440400584
-1.991313133074738
-1.678929799613998
2.0879023781504062
2.098328304114924
-0.06921080222648301
-0.5693965184872267
0.046169854103202346
2.8458382327777847
-0.5034383392570952
-1.5126688795833367
-1.5669205901818453
-0.6360529302672928
-0.506468873212542
1.6193917109853235
0.20864654061250443
0.7505172103202845
-0.07640535448241248
1.7346195924239125
-2.425167039805886
2.105316063697618
-0.3704341997417313
0.7565312942530156
-3.2978883271824175
-0.8288333338803984
0.7313747284944521
-2.1186511710222264
0.5569951094371177
1.9340598472609922
0.2920877173012176
-1.5453412862713571
-1.2167830441940886
1.8450548216118092
1.2365923507842846
0.9903388720573078
-0.8335780140349522
-0.6831954825143516
3.655892208478336
-0.7197963636983499
0.7450110061510192
-1.113631914282348
1.7040783654423075
1.5201165649902184
-2.3885394242243825
3.0540544037459383
0.4236476013776992
-1.7280042080221178
-1.274227104170715
-0.7241054437796788
0.9142430236336154
0.6591935134842588
-1.0138607740813637
-0.8628198911905567
-1.6802179822669858
0.8254320777181683
1.6046937825323648
2.226428618563745
-1.5796724461082179
-0.44976305390387533
0.6543226099396804
-3.646325854072182
0.6786232611276669
-3.652097474783809
0.0960797413491915
1.2933250732631472
0.9518707303205713
0.4029408055242664
0.9982048849189795
1.8934832367603365
0.9130585846896776
-0.5919206550765964
1.6229723056441365
-0.10067609949391576
-0.2563762042220425
0.9951205254524857
0.6693443501028347
-0.34112705467091253
-1.9877957698832596
0.910732012372954
1.9620336767491815
-1.3155902358359264
0.6607524227051467
-1.029176475483333
-1.7681892698298303
1.053366940505699
1.195473004785801
3.1742162487712733
2.5842228463440193
-2.5264071869071114
0.5045785202453928
-0.11506251079367324
0.23126288639206732
-1.1675903546012867
2.093957097151626
0.5469719215850919
0.6846843120896788
-2.871053020333441
3.1135685137262454
0.17586353499404617
-0.794798888950965
2.2103700730046905
0.5049808311304063
1.8468258890526208
-1.3757496625672072
3.0269089343701836
-0.5495612084715061
-3.0051245067328898
0.039705813291066705
2.5864108390911817
1.3080751655532656
1.2162660782802759
-0.9949649059291201
-1.0371968943262595
2.2773820763859653
2.5191687576777557
-0.8472187878016302
0.12387447792558337
-0.33046398213004424
-0.6140547256169482
0.6441157074885278
0.5968300271435536
5.963176540375134
0.10650211827356582
2.928961388080757
-0.16143627538737126
0.7781863945468479
0.9757761874284281
0.15844002592533224
0.14196852019533351
2.2462615683801648
4.038430953478149
2.359578710347605
2.394016157299505
0.7714936106890562
1.5455849995893745
3.5252801918039043
-3.447686763474814
2.337706909093459
0.8807260317476711
-0.3991461939169828
2.7506187872497785
2.313312703749529
-0.9411297062799557
-0.4813008743097107
-0.5042701336530198
0.472632963045911
-1.0049321606927561
3.390132255976688
-0.12137464002133491
4.25714469143742
0.7975054754671407
-1.9778236641069982
0.2806618901679142
2.522670351045913
-0.9444759624551246
0.6518747547538094
-0.30951240228977595
-0.3987344718898599
0.373368702922969
0.7868285114874396
2.2333696713095783
-1.2049715415340254
1.193842842536239
-2.262794559696902
-1.8121758414870002
0.18181987129847443
-1.4853141363045428
1.158637340373932
0.5962858101073145
-0.03423367255735177
-0.9292883094304888
-2.424979710219141
0.8619382874351511
-2.9908960321018223
-0.5751378452171098
2.6408701898189912
0.8162056114501004
-0.8350861647159142
0.864292699432452
-1.701045677179709
-1.851009498822814
-1.8468135347623396
1.4824043819034294
1.3592933320872036
-1.0168301304060061
-1.8388116888303723
-2.7809181374615424
-1.1003970625171486
2.23603258080737
-1.3906567227427011
-1.3689590203875612
0.6638577667393677
0.010751953736993447
2.564044763740279
-0.9747418426427122
-1.1763838876201143
-1.5162390605702067
0.5824984123766678
-1.6353511251443773
-1.2320349095947445
-1.7075513608699215
-3.8535091483368857
3.1034319236909864
0.5184792262864172
0.5906605173691781
-2.9259001859955482
-2.4132934704692657
1.959948888343668
-0.8840108229988959
0.24659499996425
0.8649002316254523
-1.4988420079509601
0.14678277015069774
-0.6718745984292005
2.040245356614577
-0.34316006916925645