-1.0426653495178977
0.5943917408548629
-0.13942863246263834
0.2345658646014369
-0.7889107672844723
-0.11166521709629995
0.07964024709321801
0.6908975732518864
-1.0647773878931093
1.336882628959199
-0.47578348516426533
1.9237681876257964
-0.06444082316296995
-1.4214553838332953
0.550771225166867
0.02085479412800534
-2.255459481369863
-1.401664832135979
0.012670895974872809
-0.49818058367947
1.0560540638290805
-1.7863661229166596
0.6022699077289941
1.325700006930747
1.4202058436341656
0.8579292636413892
1.1653527403824955
-1.0741657529859698
-1.9887205753315609
1.6299688017160396
0.81732476252009
0.4026667036208227
0.13665460671012142
-1.5097928466749828
0.7109019385682633
0.2253448436076265
-0.08712744712394276
0.12925608707957287
0.010156380868346138
-0.3519802535762836
2.5766127538255006
0.08836451360943764
-0.05369769759282925
0.2494169960204287
-0.3990233908049403
-1.090540582571843
2.244522142300984
0.9059404356360422
0.1494911061918489
0.9586666546493616
-0.3001318062178714
2.720787695705461
1.7947934898565197
-1.96166125370501
1.6267573386972973
0.879110571373381
-0.5401672616502775
1.6561293202163667
-1.5553458136950422
-0.45548394738225206
0.5393535842473032
0.8931614716445975
3.057058568794284
0.39322115978149763
0.04734755801582852
1.8039759827154949
1.820871167279647
-0.8099525299219816
-0.7549260770125983
0.5246706373111285
-0.3986245430442081
-0.3297357619721791
-0.2067805043541283
-1.4702726385884466
0.2632710513872738
-1.29646404565145
-0.12187777374170539
-0.1679294800847772
-0.06044752380814833
-0.32185807088099133
0.38524410178056945
-0.8710981281983244
-0.3344446951029545
0.00785798074932114
-0.06410384095442029
0.5733381986724542
1.1092645363980433
0.2574973721915942
0.20690226195547534
0.2522749935686759
2.188673549157894
-1.3381739095021936
-0.7426364184895928
-0.07970123622870062
-1.2356134689196145
-0.5535180206089102
-2.6525326110219805
-0.4204415570017428
1.2343940141924614
-0.31123915382831924
0.6903095342488352
-1.5020053450140598
2.754237872751559
0.0368668971411108
0.5221999059651685
0.7113493914882314
-0.01638290449910317
-0.20669609118918478
-3.034603995131735
-0.8843364835167508
0.6104173313300274
3.208481380011257
-0.5297930138950702
0.8516099636047523
2.3209256276992
-1.5236805699609517
0.6546624261313881
0.005227932248170197
0.6831774152073719
-2.013276743792285
-1.26122791992689
-0.37399462209526857
-0.9743182559306192
0.49763975671798194
0.3889353821671574
0.600385356380484
1.1897871907832123
1.651071947931929
-0.6571629645952554
-2.430440309473449
0.7066743036234003
-0.15822556466748822
-0.46718171130431524
-1.1920053773585628
-0.3191697381341537
-0.10253803852464072
-0.015885927414621026
-1.383608008443694
-0.27014769500964386
0.022960540966428966
0.5005055284031372
-0.12184823929987881
1.1335248171994325
1.1191134277748895
0.005894843910214637
1.3128046367178023
-1.7129585854179963
-2.2363831614134737
0.63787054370705
-1.3494198599123917
-1.10231742625621
-0.007057493045056984
0.45120018405225026
-2.863577176247241
-0.422582333891902
0.3074729664665037
1.3643308119855349
1.6385087242326357
-0.14555604748913303
0.36813662806176645
-0.9843177553946324
0.4445144352331361
-1.0282243905553845
0.2648265533270061
1.134818056852066
-1.7135740490725355
1.2970441630339509
-0.331043231244365
-0.20485855519207996
-0.17140021123214003
0.2601874062528483
-1.040113220099928
0.8707774203088202
-0.9437829672614144
0.15327497557371428
2.035664785281427
1.1737929420403583
0.48544354028720504
0.19142272206373356
0.5540694142988547
-0.4627719480952659
0.10328713312880067
-0.02516038428469447
-0.5247779240150237
-0.830681052412863
-1.9651253885810624
0.6995747157177474
-3.7012338549257717
0.6748810571484658
0.8516064597366376
0.8120778748882171
-1.625073236973035
0.5264520730622332
1.5661480641156258
-0.5802606530859098
-1.0439538657501073
-0.6573145566129106
-0.9025905032014656
-0.5167260709643003
0.20326763556944258
-0.662674399290962
0.7704423224479005
-2.512021154685213
-0.13741371727147764
-0.3891447121565892
0.6409204459022846
2.4749879082381456
0.5593032818904633
-1.2189221865082245
1.1909287947174305
1.1102627396106044
-0.09114464300572132
1.458081771565427
-0.19238904471689944
0.10586940540907508
-1.5907166582163896
-1.1872443920395361
0.6864952202466114
-1.4741205798108434
0.3651060279511186
0.7095578986314148
-0.07937322746031955
-0.4287016960512835
0.27703419812615054
-0.34727367498063183
0.22917217815318836
0.7504569829115252
-1.6839278675543878
-0.9025823952718671
-0.27834811285944083
-0.8902771442289146
-0.5877003865771352
1.42718562538189
-1.8227100465611434
-1.157386810165062
-0.6380180109387541
0.1553710749107834
0.20269638254203792
1.8150447347027423
1.9705972644462137
-0.7401782872375084
-0.4432164130461799
-0.49877419613937896
1.4861169996060557
1.976324887380038
-1.4045346494395148
0.8265736782066817
1.4475085098135134