-2.580776304074908
1.7926200382764523
1.4915975157292132
0.7208437700485728
-0.7751493216192056
0.7764867057083779
-0.6566531262536361
1.6886766640838744
-1.533060843169815
-0.9987790401819571
-0.19947785601297757
-0.10236585137581167
-0.7485136901100556
-0.33499619492372396
0.9677473363711194
-0.7046837420421483
0.3136967467112456
0.8637985306303904
-1.5432636981947034
-0.020162247100826036
1.253875893123504
0.01036698877380833
1.1028917997406755
-0.48533301578146326
2.011518226919885
-1.5623617165799577
0.49424459342763344
0.4435331334979408
-0.19525690675790375
-2.318060869701951
-4.007729224832026
-1.2063596043458857
-1.5638074326131721
-0.4000712814869245
0.07074074549420356
3.033272275387923
0.7581524954603251
1.3168101333765811
-0.6267400457306271
0.06405473574227888
1.3166936930918305
-1.1261468103744499
-0.9291890735533368
0.15397478319688013
-0.6420267263579582
0.08465286738136969
-1.0002898097311124
-2.0848294101028797
1.359954647309983
-0.11675483883826775
-1.1167878548522125
-1.5218862164912659
-1.0181971718107383
-0.3097014590123004
0.33432305946190954
0.5116305907619231
0.4902141388734562
-1.1942581567447994
0.6494098175190901
1.3907069353682646
-0.6016863283389774
0.41861976993996897
-1.2324011308286407
0.00025410036979928163
-1.1286170419999773
0.1563204078704692
4.096742552922768
-0.8688758614092374
0.5024388294518487
-0.6215095018439384
-1.3888130169147554
1.7642034889675366
-0.9449988928133057
-1.457811837473733
-0.09663704110988308
0.3832650051647383
0.3918174919298962
0.741653744805732
-1.2045848842868572
0.01865835422057216
0.30730031136189556
-0.29067464736014037
0.09618488724812058
-1.3017348067614196
-0.3339682857257102
0.378799772993462
-0.7372361555412196
1.0463488631968414
0.570361326563657
0.08344771501366315
-2.5495857733690936
-0.2431737714369651
0.431107343141542
0.03566888536072432
-3.090767650590349
0.017523326882964964
-0.1294492663868381
-1.2926046195342171
-0.9387350013929385
-0.8099652505659459
-1.5224739040671935
0.22730041899985964
-1.1934429337994972
-0.161654768674935
-2.417654864998676
0.5599923501051801
0.09474074778480657
3.691092626202048
1.7466676154404535
0.514312726197032
4.25726203227791
-0.25590672443191753
1.4286456586920284
0.726055078563369
-0.485014225383026
-1.0921319921203585
0.43588275129589876
-1.270338153719468
-1.8862370201164311
-0.9709094840076695
0.716567705538147
1.1493313227508002
-1.7975085153500039
-0.11788594336464044
1.918450666506156
2.448689053422233
-2.0201067379082804
0.3864062798726342
-0.7770575192954935
-0.952195304858249
0.7522071442415481
-0.8507285749239998
0.46774473391865856
-1.997014275880292
-3.816932695476206
0.673249107157592
0.7398458821828914
-3.603044308950735
-0.6597900603847723
-0.061535654847613405
-0.03770776468350595
-1.5013064715680067
-0.7926605114885403
0.7095584843486273
-0.2586609467070998
-1.7583017827045517
2.2157228666535804
-1.4161140099591685
-1.2248749230287956
0.2795568967492664
0.5218966976158591
1.3685931412069374
0.29038977241042524
0.8159360209012314
1.5087788809442693
-1.408442605025629
0.017020358790621914
-0.6736061514306604
-1.8787337877467665
1.073301744130123
-0.6445432015728778
-0.4418733507409211
-0.08585612821031856
-1.333364117062462
1.4167028139063063
0.8525803755782007
-3.3938283528983866
0.8924520117828286
0.6953660472093731
0.06530788291743941
0.9751284030735949
-1.2973765015526961
-1.7100947598497394
-0.7622304072209154
-0.442801549836508
0.7949675904123892
0.2215738647116326
1.1630913177589186
-0.053668762288813676
1.5508615377873467
0.484076107363163
1.8177149220941293
-1.2422469067031918
1.2416860318253269
0.962645536796646
-0.5191713278730284
0.23781962428285341
-0.22639635471441433
-2.386415546218861
2.6446114161506373
-0.6163945770887747
-1.5652330670999377
-0.33536657876242426
0.8564114765249468
0.20054407506060634
-1.2126043399100115
-1.2676310711148775
2.0907147693239123
0.9173564130607956
0.14019869139662922
0.8710212819718682
2.439332074056884
1.4979440490226952
1.1410082782146145
2.125699105320769
-0.2650433349196709
1.7175018621271523
1.263067839657001
-0.6608391630736451
0.0076470103339278395
-2.42687875695966
-0.1890084377998496
2.260543276432453
0.6508382742968347
1.071865065556703
-1.1254463179841334
-2.6217299686083617
-0.020927285522148953
0.21712006895078026
-1.7573883984621776
-0.24382199865514925
1.0278873935470318
-1.2424073915654377
1.1256407425020216
0.665811667018927
1.5560229384821507
-3.103568991040549
-0.267933376327543
-0.7079823744566083
0.2093010724822465
-0.03217207356577684
-0.524226610420721
1.178353110261261
2.2682987903856704
-2.1571729241718285
-1.2922798182798496
1.6006621632360545
1.3371573761769815
2.2222145280845584
0.1724324616197051
1.3844906566329287
-1.110194833778327
-0.7851617318116819
-0.06961686716515414
2.338142374871376
-1.87327350671804
-0.11875575291292462
-1.1787593858583922
1.6760648488059018
-2.1406791023675633
-0.6687430571663345
1.207762693076179
1.554775953154301
-1.5098862709034178
-0.8028076655271558
0.5884964390795389
-0.9347408457434865
-1.4911912314966633
-1.4638339873722208
-1.718373797004213
1.7179583696047398
1.3592433098102716
0.1522387489931143
3.1190673540462797
-1.8229112807600325