0.8725296902180536
1.8883836705915886
-1.8219875390550626
-0.528876958970389
1.2287846852205855
-0.7211451328764051
-0.301436294556481
-0.41143363944532085
-1.3793206888975984
0.40529577873611256
-0.27202802537963233
0.37225247724433475
-1.185681734208676
-0.29318669001438397
-2.194820271626051
0.7893356739516363
-0.6551642887771865
-1.0347918042928947
1.3896316307614658
-0.19077676277185895
-1.7422769419992483
1.9504072039250522
1.7229816005462026
2.3425009464296385
-2.21278807255091
-2.0643440663433035
-0.3666071808112691
1.03474333356426
-1.7367160307387632
-1.6935311467619918
-0.0427087433189679
2.0871622372779277
0.2524758003439387
-1.7536688268613787
-0.4037147333207601
-4.058828644436639
1.9517076608177972
0.09575689497907153
-0.7532347764727453
-3.849796056660342
0.588448467611682
-2.2928454929726367
-2.3361753156384255
2.479889321601608
0.6625631149285863
2.1224327724416767
-0.23880448336472182
0.7513749972327205
0.46661487153352965
4.199901410573299
-0.6401840654378996
0.7385382088445102
0.7416030341121199
-0.11069144415517934
0.7017467587458313
0.6406171343416384
-1.0820479229673452
-1.3094993910382435
1.4304206220649418
1.0014030602780535
0.727227634100318
2.1120335111630606
-2.2636794844247627
0.07177142050456298
3.7106884857701754
0.17639821256731938
-0.6048346812531077
0.2878298659192525
-0.5471352176803016
0.4990049431429222
0.4070805585943349
-0.6757182084131954
1.0912435299893715
-0.2137812350034783
-2.459586836926625
-1.516674466273353
-0.4351824570707443
-0.017815070316713977
2.9534011860623064
0.289974836646337
-2.810284311577
3.5134519822617913
1.0280210520099586
-2.397237124539871
0.22939194860841677
0.380747930275283
0.18353628442356437
-1.0124871656244958
-0.5546910214847358
-1.7046261673146865
0.9626485406038551
-0.9223134977140893
0.4971824044089223
-0.06879839510772734
-1.0844943765090114
-0.16665750056978218
0.910691172406979
-2.263956847595216
-0.772961007688657
-1.4751144065142738
1.0027997778032554
-1.8644423224924571
-1.6016052281516613
1.3631673074922739
1.0172456877367628
-1.471547776671177
-2.3911374601349538
0.9816746117468369
-0.8091725858637551
2.2760264378063844
-0.17092532490175638
-2.823984105593634
4.660671789684611
3.570309782906083
0.7814232794943763
-2.1277216333213906
-0.6354452951858538
-1.0457239302737795
-2.3843275548777205
0.801169433169181
2.1420107511553215
0.24259697482626888
-2.183113618308646
-1.6253623984127377
0.0767266982038784
2.926449518343617
0.5550997903697401
0.9484214041346952
-0.36608806720474085
-1.336656288053949
1.033387163024071
0.12126450179185239
0.3937561496208655
0.16079545842328535
-1.0608663550528836
1.3449813158512098
-0.1901475591090293
2.458587911537221
-1.8764660972029972
-0.9449877739315224
-0.141146034455173
-0.298468475361221
1.9282168348397568
-2.5711609444071852
-1.6882106439962041
-0.45097770667255893
1.3266795183905382
-2.1934536129348547
-1.1646622008201213
-0.3979867209213388
0.11636670627607167
1.4410314084447569
2.5100234542112303
-1.2531789625752283
4.914984038328163
-1.1790442835077188
-1.1343462294987356
1.2009284355965688
-0.18345355938744973
0.7251191937220016
-3.1941984010785536
-1.5902281685300892
-1.3913779999021687
1.36590657438881
0.7494648869666974
-1.2845538601846818
0.6662398548566626
-0.6293470664178845
1.931632613549997
0.7169816856290652
-1.1488117626405434
-0.3869980028240474
-1.176632861990328
0.8484433224735436
-0.8734674396413122
-1.7161315711173086
-2.2523091476465824
-2.961457449286441
0.6993534126773839
-3.6789964751973363
-1.4881469929439026
2.2491918523076437
-0.9737889417700586
-1.629421385903049
-1.9745804151052617
0.2828142710187581
-0.7728169112202152
-0.5410031671085399
0.3942214209739816
0.5589169619088669
-0.09355018614169776
-0.236115148062771
-1.9042987485837397
-0.9983653995731945
1.7909073019584705
-1.2304928565708595
-1.1326964894294365
1.1517479914638495
3.02688077588945
-1.808152052982356
-1.405758200550801
0.6319336774532769
2.474656179690415
1.5824279980414184
-2.696463674533135
-2.0198213800161398
-0.5865285631425396
-0.15183417602026128
1.1286693143135835
-0.037501518018242766
3.042117784150326
-1.1019541890305498
1.7652923200771973
-3.815895783128611
-0.0775639806902072
-0.48012044332538617
2.2379811142034356
1.0126228130198625
-1.3050692810124032
-1.7746445930430277
-0.4123644693033911
1.494509459058758
0.20828626799630723
-1.330044482728915
-1.685926914324058
0.4936566284207913
-0.9340214691354757
-0.6840843779490269
3.3324732245831297
-1.6193607999546065
-0.2672656388303006
1.517593929414749
0.5522390119592652
0.33639370953206227
-1.950017810812937
0.8406573348643396
0.04057359517957648
-1.4021025918841903
1.7426395155732683
1.3600186007651207
0.05895186464826728
1.3216600280126078
2.459661286642546
-1.2892220724365973
2.1643968644894196
0.8359370965838812
1.5233392023066656
0.9772072001605426
-3.5612748456449475
-2.9579012059630583
1.1292977732314933
0.36916303647820226
2.347290950865099
-0.6113463466164953
0.0059452585661317675
1.8705449713901625
0.6018666966610126
0.536085561560148
0.08587943042987556
0.42674261234470284
1.3025704152389301
0.8692857099219942
0.01907648916126478
2.467370662863498
2.848132267867817