-2.0854919078161345
1.524356461269535
-1.974266907589528
-0.8866214965244945
-0.6017559645927826
-0.13338535666141157
0.9582996380940407
0.6677116503836363
0.16746340851759095
1.0331585021341962
-1.2891378034918803
0.3331300317951384
-0.32817145563268807
1.1441019084598716
-0.7155878922488921
0.31903314317332315
-0.052135112030697706
2.0411210723942323
-1.5268101522742787
0.26954577388923107
-0.4280053089964022
-0.7486996685946569
-1.4750256902964338
-0.06913261930256165
-0.12687982495421213
-0.7829783144461002
-2.3192576502867315
-1.1026479291289426
0.16062485378470645
0.09576220226173934
3.107852183850487
-1.5449850661755535
1.6514057341713004
1.6884068125980898
-2.0533832789525492
1.1819529548130507
3.337187364951516
-1.6752275450181109
-0.24790383424637513
-0.6783350839821554
0.43811113368192206
1.4888324231597585
1.6096977057905841
-1.2977834885080612
1.2632145231249226
0.48869080435337686
-0.41450247266172885
0.4245419256585652
-0.04979059970853922
-4.044582887359423
-0.0009843066660601418
0.3026392922517994
2.187986390813352
2.8957968420275466
-0.3567737987317551
-1.4951658717965053
-0.6886533727184116
0.5488827752996095
0.2577030160635721
1.5273279497937953
-0.9305944467315515
-1.5689062918345644
-1.3107588134675885
1.336264540549783
-0.6448571888674055
-2.0137765917670265
-0.1473269077589631
-0.7936770571662612
-1.8370952589325982
-1.0985021610628336
-0.32229778146398746
1.8241288414207377
-0.7455289206446064
-0.7894936396268322
-0.49016524634363445
1.4797624980931539
-0.8362523929346677
1.7194789148127496
0.01620266404472298
-0.05924416501075214
0.45719540459409896
-1.2775416853520378
0.10752665394599115
0.33607505115156294
-0.8548471496640458
0.6791007529172197
-0.32069200693666383
0.3313980559389663
-2.0858207620281326
1.1575136019977965
-2.2907045954247733
-1.7157257710669482
-1.1735862640817343
-1.5987759487748947
0.0625511685023814
-0.47344199665639075
-2.457761255858408
1.0149349212331642
2.395291991119112
-2.6711167705395646
-3.417823594925075
-0.26494768139472136
-1.347084275060157
2.941363241467273
-0.2941733115130608
1.1944679331753956
-0.264576886967137
0.8152816439471194
-0.35426628507496827
-2.4561218711602866
-0.6311668976343972
-0.45540429100276036
1.9898139242931063
-0.2667693399327974
-0.7123637840904873
2.444090648479789
-0.02634985763841885
0.6124241388248173
-2.133469697216859
0.9781611914179811
1.6859140767896053
-1.207557844053854
0.4277274652121582
1.3926683462306546
1.4577290260541051
-0.7171923527521111
-1.010539536940804
1.9964031061501335
0.679683108663504
0.20745089998373323
0.2194250799832233
1.138917607600202
0.11727150578733934
-1.3427501004356175
-1.9986447205265865
-0.285679098464875
0.3064332020394587
1.399325130559765
-0.2601048117615645
3.4395001991197303
-0.2943709683423114
-1.2402673662357546
-1.1811319705435945
-1.3220591790992473
1.7088460170927213
-1.6953756622221094
2.1372273628267418
-0.5968248458852521
0.26441740624784227
0.6158516498187638
0.40500997855440013
-3.1095228499610568
-1.3412899858955694
-0.4429044804003384
-0.6176412520803931
2.051764516303186
2.760609916646828
-2.0527389183019134
1.3157643754961135
0.18149090568803133
0.3949719637530113
-0.7729317110869183
1.2408635517783133
-0.874012788908225
0.9392536125407611
2.1168025972164646
0.5955330250892538
-1.4540333314544123
-3.5591456071003904
0.06047987779548197
0.4086014552481265
-2.1613667110085486
-0.3100953366950469
-0.40710470235260443
-1.7756762330545497
-0.58873805605103
0.863514152647304
-3.257471157188936
1.1827967383972096
2.6224712404028367
-0.6262925842974516
0.9733135702236112
0.19078520143875605
2.093354990820669
-0.07146397456618847
0.22001614361885086
-0.5621551287370767
1.8462265683205634
1.0411918990545306
-4.805021873757713
3.320146340031819
-1.5514577956514999
1.710110194756856
0.3415654931951147
-0.24327386765373005
2.0447413812418795
1.3088776392049497
-0.8028743022217686
3.3507130305174013
1.1896443845322877
-1.9915550034784608
1.5948063615143777
0.15961790576700818
0.7231062670530146
-0.3245269158719359
-0.157542068918837
0.1235475750471654
1.6816507116515356
0.538509113314389
0.40847663801206646
-0.40851007552095925
1.351388770983369
2.364922511326974
0.506678975864596
-0.38898415767737093
1.1264266778736154
1.0815723641907047
0.506846481055341
-0.9079940111072916
0.6703594504640252
-0.6105995148117762
1.9882836879387995
2.433983407411253
2.943528422996597
-0.9218362398912879
-0.8469351420366172
0.4567259990183484
-1.3963700652255668
1.7565628124436525
-1.731291851147718
-0.38551014698499053
1.0044104863153267
0.9166560171107385
0.34683446577445853
1.4415892607876724
-2.242510342344787
1.1869237609688084
-2.5457205736373747
0.5115779073351842
2.0182651521666406
-2.449068712521606
-0.5559690478071133
2.0364862831646677
0.691611827178373
1.0453382562732387
0.2859652816213943
-0.5339109035855774
0.5404867963407269
1.8274750171470489
-0.8633662209361516
-1.6159008529200374
-1.6567395901752158
3.383795029996924
0.05397505407511338
-0.5146975039251624
-0.08937376460671798
1.9374805341942412
1.1432118674789555
0.1533430715462103
3.1307370784478663
2.047782883746407
-3.01089472895666
3.441697779936616
-1.6993528855248223
0.6423493733806389